-0.00516339 0.0372625 -0.0407253 0.0336821 -0.0285671 -0.00508035 -0.0222362 -0.0665861 0.021672 -0.00504455 0.0122977 -0.00731166 -0.00200585 -0.0200085 -0.0161963 -0.00400992 -0.000187403 -0.0204379 -0.0253906 -0.0449377 -0.0324653 0.031355 -0.0152492 0.0587118 0.0211628 -0.000254956 -0.0327418 -0.0109282 0.0183455 0.00960805 -0.0144489 -0.0103587 0.01734 0.0209756 0.0047036 0.0102393 -0.00377335 -0.00913558 -0.00277994 -0.0121487 -0.0456344 -0.0120057 -0.00911281 -0.0158926 0.0254346 -0.0147538 -0.00148864 0.0156364 0.0314592 0.0281245 0.0139109 -0.0532266 0.0100951 0.0158329 -0.00764085 -0.00593595 0.0275076 -0.0166279 -0.0243492 -0.0151136 0.00560934 0.0386526 -0.0392369 -0.0132477 0.0368341 -0.0077949 -0.0117727 -0.0286703 0.031639 -0.0226382 -0.0273422 -0.00602122 0.0125535 -0.0219539 0.0141853 -0.0151403 0.0192331 -0.00233342 0.00453869 0.00162895 0.00395814 -0.0146184 -0.00977147 -0.0252292 -0.0158162 -0.032854 -0.0122679 -0.0243648 -0.0282106 -0.0107678 -0.0122641 0.00808824 -0.00421302 -0.0116992 -0.00140805 0.0176972 -0.0012184 0.0247788 0.0238009 -0.00610432 -0.03492 0.00774173 -0.0229537 0.000462722 -0.00700513 0.0570671 -0.00137776 -0.0116348 0.00791923 -0.0221804 0.04793 0.0285617 0.0100475 0.0182525 0.0591118 0.00504262 -0.000527547 0.057864 -0.0157267 -0.0170979 -0.0218748 -0.00464725 0.0303962 -0.0351799 0.0471766 -0.000272926 -0.0212914 0.00149826 0.014445 0.00738211 -0.00316009 0.00450381 -0.0027775 -0.0295286 -0.0126159 0.0182241 -0.0284224 -0.0052833 -0.0490882 -0.0161964 0.00755327 -0.00464007 0.0142295 -0.02555 -0.0014867 0.060063 -0.0197755 -0.00838621 0.00558589 0.00695617 0.00344657 0.0350564 -0.00924108 -0.00692575 0.00955132 -0.0122532 -0.0321157 -0.0121605 -0.00678942 0.0105309 -0.00336756 -0.0288378 0.00261226 0.00483589 0.0248175 -0.00756937 -0.0118394 0.014872 -0.0384124 0.00272675 -0.0147946 -0.0539669 -0.0160291 0.0232833 -0.0182046 0.00978433 -0.0057623 -0.0132388 0.0155382 -0.00699155 0.0461997 -0.0137054 0.0127162 0.00300304 -0.0170904 -0.0364626 -0.0215207 0.00399824 0.0248461 -0.0482619 0.0264817 0.00293521 -0.00281636 -0.00810907 0.0210809 0.0517571 0.0162538 0.0435047 -0.0170313 -0.01312 -0.0107451 0.00549793 4.45743e-05 -0.00144594 0.0504572 0.010835 -0.0131048 -0.0215983 -0.0348883 -0.0255252 -0.00923604 -0.000748248 -0.00792566 -0.00522317 -0.0121285 -0.0153245 -0.016116 0.00512025 -0.0195928 0.0165203 0.0294158 -0.0137126 0.0125172 -0.0122408 -0.023594 -0.0631061 0.0207176 0.0193527 -0.021239 -0.0176831 -0.00934026 -5.87639e-06 -0.00752417 0.0311126 0.0415568 0.00249932 -0.0243305 -0.0105299 0.0106834 0.0148347 0.0349893 0.0237143 0.00456538 0.00786391 -0.0613379 -0.00849331 -0.0129176 0.0482094 0.0145567 -0.049806 -0.022878 -0.0273119 0.0144477 -0.0314515 0.00768098 -0.0144505 -0.0397393 0.00528025 -0.0446416 -0.0129937 0.0463637 -0.0151789 0.0686105 -0.0417035 -0.0396615 -0.0161807 0.0150407 -0.0483033 -0.0146319 0.0259404 0.0138201 0.0108437 -0.00397227 -0.0334854 -0.000978254 0.0136835 -0.00143745 -0.0152557 -0.0224834 -0.0488126 0.0275748 -0.0127452 -0.0504142 -0.0692648 0.00719695 0.00332328 0.0287075 -0.0792096 -0.0203024 -0.0282562 0.0107496 -0.0125652 0.0305201 0.0143738 0.00752645 0.0574127 0.0334798 0.0467602 -0.0718341 0.0215961 -0.0145843 -0.00895547 -0.0081231 -0.0178742 0.0272027 -0.0207758 -0.0332924 -0.0288987 0.0541153 0.0167266 0.0195553 0.00546068 -0.0532167 -0.00372304 -0.00988978 -0.0217514 -0.0248456 -0.0192234 0.0274688 -0.0153127 -0.0501609 0.0161098 0.0110433 -0.0200361 -0.0256747 -0.0165149 -0.0294906 -0.0158752 -0.023268 0.0131578 -0.00842768 0.0264638 0.0225097 0.0295065 -0.0334443 0.0595605 -0.00675298 0.00521625 -0.0073649 -0.0443894 -0.0135594 0.054534 -0.00788074 0.0433187 0.00875067 0.00383054 0.0208978 -0.0100046 0.000820537 0.00600174 0.0297691 -0.0311822 0.00579898 0.0156672 0.00522839 -0.00414275 -0.0291403 -0.0306186 0.00491279 -0.00980331 0.0318536 0.039149 0.0609845 -0.0500678 0.021737 -0.0230482 0.0286201 -0.0130759 0.0231467 -0.00362187 -0.00138053 -0.0120294 -0.0137861 -0.00940368 -0.01372 0.0407221 -0.00270909 0.0385851 -0.0841298 0.0157856 -0.00132462 -0.034922 -0.0141731 -0.0299351
