0.290568 -0.00350271 0.253538 0.36305 0.0759327 0.219481 0.39726 0.352719 0.538045 0.0783028 0.390017 0.0878813 0.402126 0.0618446 0.184888 -0.10661 0.351291 -0.0831055 0.59755 0.251241 0.233802 1.31098 0.531192 0.372872 -0.0629758 0.242467 0.256104 0.143125 -0.11191 0.359564 0.324587 0.56 0.495609 0.121276 0.263779 0.535701 0.0573043 0.277879 0.509757 0.246702 -0.162626 0.530613 0.529044 0.0471155 -0.0211795 -0.262464 0.984781 0.391298 -0.139065 0.218252 0.0864422 0.11979 0.40402 0.586466 0.0754306 0.540083 0.611794 0.575339 -0.0507769 0.0948977 -0.173786 0.138828 -0.155796 0.0559307 0.249774 0.261489 0.299722 0.688024 0.0127678 0.257068 0.318652 0.0347021 -0.026827 0.292624 0.297956 0.425151 -0.0620098 0.589912 -0.187455 0.111047 0.109649 0.0570171 0.396654 0.139348 -0.0401069 0.237701 -0.216115 -0.0615571 0.436671 0.861049 0.348558 0.139198 -0.250676 0.0578887 0.29067 -0.129054 -0.142928 0.182228 -0.211573 0.310321 0.00130104 0.619476 0.844885 0.227502 0.0887904 0.66158 0.134827 0.654663 0.306323 0.112802 -0.00444308 0.17768 0.266647 0.202208 0.277316 0.129396 1.0255 -0.289802 0.177474 0.0865261 -0.00683712 0.570439 0.32444 0.437534 0.213816 0.383553 -0.10613 0.365296 -0.152095 -0.125299 0.261804 0.744937 0.292521 0.293338 0.409386 0.198013 0.0378584 0.240495 0.335195 0.0930938 0.118693 -0.0180512 0.169886 0.385471 0.131897 0.127048 0.173803 0.132862 -0.0679741 0.0460036 1.03205 0.256982 0.267875 -0.195312 0.501082 0.156606 0.423773 0.591131 0.531631 0.44966 0.11722 0.090991 -0.145972 0.434214 -0.0888793 0.319082 0.450182 0.615886 -0.121156 0.250672 0.10923 0.0956853 0.0795595 0.202587 0.325191 -0.113854 0.79479 0.648933 0.378764 -0.283349 0.109209 0.0933545 0.132754 -0.129891 0.257419 0.113685 0.189367 0.449768 0.378569 0.154282 0.210878 0.119599 0.28186 -0.00945567 -0.0888305 0.255118 0.202086 0.26102 0.301582 0.254063 0.463353 0.859147 0.250096 -0.0534179 0.786116 0.231219 0.0735448 0.349258 0.816006 0.0905296 0.208689 0.390328 0.128099 0.240713 0.26881 -0.141468 -0.121982 0.0395023 0.554973 -0.0697467 0.278644 0.242268 0.404005 0.010449 0.0819678 -0.0470524 -0.125573 -0.0587781 0.129694 -0.483353 0.0324768 0.198597 0.242437 0.695291 0.594468 0.189904 -0.00419235 0.125273 0.620063 0.394729 0.0763044 -0.0537217 -0.0200651 0.227278 0.33203 0.0824815 -0.0277321 -0.0624426 -0.0609783 0.21156 0.592612 0.142525 0.0402404 0.426605 0.0154572 0.100741
