0.0257748 0.109415 0.0338409 -0.0264907 0.0352117 -0.029054 0.185702 -0.142268 -0.20248 -0.282458 -0.22209 -0.202561 -0.0494076 0.00844519 -0.135417 -0.0687817 -0.142182 -0.0998843 -0.0991363 -0.0315032 -0.016952 -0.0396053 0.0866736 -0.0838121 -0.176739 -0.0803067 -0.138862 -0.130537 -0.0593446 0.0743114 0.0408824 -0.0661577 -0.0825207 0.0121 0.113177 -0.087205 -0.00514721 0.00675442 -0.0106453 0.0981338 0.0175182 0.0387091 0.0504448 0.0633212 0.0814996 0.156511 0.0982019 0.16763 0.115529 0.251838 0.19931 0.0764045 -0.00224504 0.0291149 -0.188646 0.0240152 -0.0433547 -0.0417018 0.33831 0.031749 -0.23318 0.25443 0.141691 0.180813 0.100182 0.103137 -0.044296 0.146857 -0.0500238 0.128791 -0.118962 0.0694908 0.0664232 -0.144376 -0.0728686 0.0968674 0.224861 0.0417342 -0.151166 0.0859317 -0.211915 -0.154455 -0.125243 -0.19791 -0.159124 0.0248783 -0.146791 0.0949389 -0.0416983 0.0335676 -0.180752 0.00864902 -0.235935 -0.0559231 0.124018 -0.177894 -0.10941 -0.141544 -0.0591988 -0.27254 -0.0958508 0.0592204 -0.0440977 0.259582 0.0917625 0.155998 0.0700318 -0.0256242 0.0395532 -0.238579 -0.369314 -0.00920038 0.00374956 0.0443929 -0.0470197 -0.139507 0.195342 0.0359188 0.0304353 -0.0622696 0.0997188 -0.0333074 0.24661 0.0154804 0.0095605 0.118266 -0.123746 -0.19197 -0.0287599 -0.0730215 -0.179156 -0.0063971 -0.0579093 -0.0696028 -0.43073 -0.155543 -0.254283 -0.0626898 -0.0343723 -0.194102 -0.0306911 -0.143173 -0.154155 -0.308142 -0.124576 -0.17067 -0.0982283 -0.0869331 0.0314353 -0.033303 0.0244722 0.101198 -0.32344 0.147261 -0.00177891 0.156779 0.0576307 -0.0477743 -0.201993 -0.0741827 -0.0988723 0.247971 0.110873 0.0582416 0.122375 -0.16848 -0.0421975 -0.208138 0.0416414 0.00138413 0.141903 0.154847 0.0824979 -0.156497 0.193166 -0.230907 -0.110354 0.0972801 0.150728 -0.148756 -0.0313119 0.0185462 0.236387 0.0443537 0.0727513 0.116904 0.0693124 0.0680602 0.0326836 0.0902077 -0.00479707 0.12039 0.159269 -0.0618898 0.0957718 0.161858 0.186447 0.0492658 -0.052291 0.13726 -0.198663 0.0663415 0.0810021 0.0686767 0.134851 -0.00781608 -0.0847917 -0.0141959 -0.185764 0.114921 -0.0512631 -0.0155349 0.0437093 -0.0110646 0.0527451 -0.033488 0.0383947 0.1761 0.172396 -0.0583055 -0.112401 -0.172665 0.00498586 0.166182 -0.0765811 0.182604 -0.0979447 -0.188921 -0.134081 0.115442 0.0369417 -0.169824 0.0596408 0.0331313 0.09571 0.0561942 -0.0812776 0.127931 0.0948081 0.11663 -0.0124518 -0.0306986 -0.0347478 -0.0252792 -0.123034 0.0124044 -0.221097 0.0384705 -0.124575 -0.0941968 0.0109916 0.0391728 0.0318992 -0.1077 0.259103 -0.0719156 0.0583536 0.143764 -0.0335435 -0.0458814 0.038995 0.0391687 -0.258239 0.0606233 -0.00459482 0.0148645 -0.0320374 -0.21344 -0.201523 0.161211 -0.00186547 0.0514138 0.00697374 0.0868634 0.00563327 -0.0479522 0.0525465 -0.00939406 -0.15733 0.0544186 0.0160125 0.206028 -0.171672 0.112043 0.0599888 0.0362279 0.281109 -0.0291714 -0.0911331 0.101726 -0.0780387 0.1275 0.0245777 -0.171792 -0.0991866 0.0123062 0.0261446 0.0580899 -0.151813 0.117787 -0.191074 -0.166979 -0.134202 -0.0689232 -0.236025 0.124361 0.134784 -0.208796 0.00309299 0.124497 0.0236519 -0.0892676 -0.083856 0.253098 0.172754 0.187166 -0.0129753 -0.178477 -0.0607058 -0.0153349 -0.100111 -0.176935 -0.193088 -0.261387 -0.0320162 -0.23758 -0.121791 -0.245641 -0.307826 -0.112282 -0.0230071 -0.182865 0.0749119 0.15423 0.145454 -0.00906313 0.0759209 0.105457 -0.168299 -0.0710799 -0.0931951 0.00859211 0.0422754 0.0272612 0.0926926 -0.177049 0.108913 0.0430358 -0.0777416 0.127367 0.0232105 -0.182056 -0.102925 -0.156241 0.0385882 -0.123323 -0.120481 0.0480973 -0.0764532 0.0438977 -0.0275812 0.206283 0.00705425 0.0805106 0.105666 0.15166 0.180855 0.164132 -0.166732 0.0713056 -0.0509485 -0.0468319 0.12348 0.0606792 -0.0677873 -0.0257683 -0.0292566 -0.039825 0.155914 0.0660855 -0.134974 -0.0157302 0.183361 0.148938 -0.158 0.004678 -0.0754541 -0.0470303 -0.0643012 -0.0296496 -0.0758035 0.128189 -0.196807 0.0770568 -0.139725 0.0625481 0.0256964 -0.0269816 0.00320653 0.179737 -0.0959106 0.182801 -0.00550097 0.000557896 -0.212517 0.108065 0.0245648 -0.160738 -0.133332 -0.198676 0.250642 -0.0601941 0.0170602 0.111875 0.0746303 0.04858 0.112851 -0.0882363 0.0912484 0.089696 0.119025 0.072072 -0.126058 0.103005 0.349089 0.0342913 -0.191025 -0.218244 0.205144 0.0285463 0.084645 -0.0455019 -0.0632142 -0.0755612 -0.0499256 0.0556031 0.0422586 -0.0467925 0.175205 -0.267836 0.00951424 0.0977986 0.0236687 0.00214705 -0.0692017 0.0793478 0.0810907 -0.267126 0.256354 0.13946 0.181525 -0.26149 0.00587725 0.159067 0.121603 -0.166663 0.0153123 -0.00119598 -0.170796 -0.114158 -0.033408 0.0116588 -0.0870338 -0.143737 0.0686601 0.0255664 -0.0642003 0.198821 0.0331096 -0.037943 -0.160273 -0.0547842 -0.069525 0.159174 0.0498679 0.373505 0.0787831 0.217843 0.161896 -0.219178 0.235467 0.0868526 0.0853962 -0.0940797 -0.248189 0.0826272 0.0364057 0.0606783 -0.24366 0.306743 -0.14032 0.180467 0.162492 -0.237231 -0.190153 0.040568 0.157912 -0.302676 0.128665 0.0479061 0.225259 -0.144416 -0.322431 0.0409266 0.138135 0.0415133 -0.0380338 -0.144432 -0.00318945 0.095818 -0.0757662 -0.0251247 0.0859665 0.0367799 0.0540842 0.092032 -0.116245 -0.00732296 0.00254767 0.107507 -0.0421596 -0.0443097 -0.000611428 0.12279 0.118932 0.0979354 0.160211 0.0906969 0.127753 0.0463668 -0.0171935 -0.0297807 -0.0242358 0.000638172 0.046368 0.155381 -0.12507 0.130342 -0.277763 0.0869176 -0.11655 -0.238084 0.0289145 -0.0401961 0.015714 0.139847 0.0240835 -0.153761 0.030844 0.273687 0.153339 0.0102334 0.105678 -0.142096 -0.236283 0.0395599 -0.0811908 0.106031 -0.0951324 -0.200981 -0.00649012 0.152751 -0.0730058 0.25973 0.083307 -0.00538455 0.064128 -0.13043 0.0387227 0.063471 0.198707 0.0608682 -0.102545 0.0250582 -0.00330679 0.0437064 -0.0358709 0.124298 -0.131692 0.112574 -0.0997267 -0.0914147 -0.0201714 0.150643 -0.102648 0.0514296 0.016527 0.0402064 -0.0936008 0.178343 -0.149751 0.0539707 0.0683673 0.196188 0.185886 -0.102994 0.0180565 0.159438 0.0717547 0.226579 -0.130209 -0.123666 -0.129437 0.0834757 0.0518449 0.0658738 0.196166 -0.0440156 0.0542232 -0.0576872 0.0603917 0.19384 0.0772368 -0.0940206 -0.0268238 -0.173596 -0.332332 0.165481 0.00745491 -0.0401776 0.0250231 -0.0138329 -0.0284202 -0.040939 -0.0403954 -0.223634 -0.00862907 0.156583 -0.138811 -0.0171364 0.00553429 0.0153937 -0.126014 0.283345 0.199962 -0.179199 -0.00457277 -0.112454 -0.176068 -0.12751 -0.161941 -0.150589 0.0858832 -0.141007 -0.164289 -0.122001 -0.0724319 0.0831926 0.207163 -0.0401524 -0.0473631 0.102185 0.0896594 0.0246939 -0.0504243 0.144 0.0816372 0.0522573 -0.0740556 -0.128952 0.157563 -0.0690664 0.0344473 -0.111458 0.0599891 -0.079863 0.0575887 0.0244105 -0.118828 0.200356 0.0628204 0.0618258 0.117583 0.0198767 0.218177 -0.0308632 -0.168163 0.0598218 0.0742439 -0.190058 0.0841682 -0.0461507 -0.12091 -0.0578066 -0.272974 -0.0335831 -0.0971675 0.0936636 -0.102453 -0.23201 0.10202 0.216413 0.167793 -0.117814 0.19201 0.18973 0.149346 -0.050807 -0.1745 -0.00959716 0.109218 -0.0546448 -0.0624817 0.185408 -0.0132992 -0.297987 0.222513 0.241701 -0.296596 0.087891 0.174801 0.160988 0.0505331 0.190795 -0.0930449 -0.0367911 0.113199 0.0655784 -0.123287 0.109497 0.265501 0.0577639 -0.0244007 -0.0431752 -0.163492 -0.0805471 0.231455 -0.07995 0.0127584 -0.0594119 -0.0255551 0.0690953 0.0698299 -0.0473313 -0.145864 -0.201335 -0.178152 0.0350954 0.0758543 0.275421 0.0387833 0.0371067 0.0386976 0.198392 -0.0449924 0.0927471 -0.142826 0.133355 -0.0402269 0.235194 0.000109448 0.137382 0.0190454 -0.00247873 -0.158106 -0.00325329 0.0864633 0.0663073 0.0366209 -0.0545067 0.218375 -0.128429 0.102035 0.143875 0.027893 -0.0120521 0.0546324 -0.00981645 0.0190257 0.0191932 0.0561709 -0.0872388 -0.270929 -0.148224 -0.0400236 0.0466704 0.212621 0.133196 -0.358043 -0.233666 -0.10478 0.0255832 -0.133531 0.00819361 -0.00953269 0.337993 0.129513 -0.0266661 0.40081 -0.113354 -0.130926 0.262789 0.160329 0.0512948 0.254295 0.056375 -0.0281157 0.128108 -0.0213413 0.175641 -0.0512936 0.0646516 0.00596568 0.0329586 0.0131869 -0.0560889 -0.236428 0.00654622 -0.051541 -0.0651649 -0.288428 -0.14018 -0.0338369 0.124442 -0.0906862 0.171615 0.0739458 -0.0368481 -0.0486022 0.257439 -0.0524045 -0.139855 0.229964 0.168395 0.0467098 0.149859 -0.141049 -0.128771 0.0498387 -0.180806 0.0922973 0.0366841 -0.10131 0.0301679 0.0513209 -0.112837 0.049401 0.118628 -0.0405978 -0.153736 -0.0277214 -0.1453 0.0586512 0.225321 -0.0704504 0.259883 -0.0775493 0.032724 0.134074 -0.10879 0.151378 -0.0313011 -0.134708 -0.0860855 -0.00690395 0.0694607 0.0110555 -0.154779 -0.0167006 0.0720384 -0.0264184 0.115372 -0.0110087 0.118846 -0.0319539 0.300408 -0.0319559 -0.0914904 -0.173693 -0.124857 0.0541023 -0.23198 -0.107305 -0.148498 -0.13922 0.0338992 0.0802908 0.193171 -0.0744222 -0.050837 0.0659944 0.016718 0.172369 -0.179688 0.0655891 -0.102125 -0.00243125 -0.0685246 -0.0749538 0.0441733 0.113136 -0.00198685 -0.0234734 0.169998 0.0166012 0.0480173 0.0991819 0.00515328 0.163386 -0.105419 -0.134843 -0.134291 -0.113052 0.0161305 0.164344 0.212768 -0.0546785 0.16944 -0.0395384 0.0792149 -0.0429822 -0.257412 -0.125262 0.188164 -0.250924 0.0538318 0.134269 0.167497 0.357225 0.0553618 -0.0149494 0.185476 0.0568854 0.0131873 0.100581 -0.0471835 0.111922 -0.0696953 0.156819 0.24621 0.0256048 -0.0816844 -0.243531 0.0098028 0.0367145 0.131423 0.0181454 -0.0819442 -0.0160475 -0.0188103 0.0336202 -0.0133708 0.0968412 0.0263449 -0.0655519 0.0747297 -0.123176 -0.390537 -0.100242 -0.104356 -0.177328 -0.0938514 -0.174656 0.0744747 -0.0477425 -0.00453631 -0.0909294 -0.0199184 -0.129626 -0.0970454 0.111598 0.154819 0.0923425 0.00526943 0.00550949 0.328504 0.0375124 -0.0693748 -0.192684 -0.0469605 -0.0758507 0.341654 0.0957034 -0.036057 -0.0767264 0.0720072 0.0885817 0.165569 0.0373575 -0.00966054 -0.0262003 0.0376541 0.372776 0.169484 -0.157467 -0.236137 -0.150878 -0.119242 0.0499388 -0.125671 -0.0878771 -0.295236 -0.17736 -0.136924 -0.0188376 -0.179934 -0.0674416 -0.0348583 0.0271608 0.234651
